7.428863336290999486e-01 4.652784872799511917e-01 -4.812855956514736633e-01
-3.690843500822153511e-01 6.551341558646591734e-01 6.592237710701043252e-01
-4.223452492382417378e-01 8.344217107060510896e-01 -3.540690598573598691e-01
-5.029387257628684660e-01 6.499456214327019588e-01 5.697572529669816532e-01
-6.386144515870684213e-01 7.387699215105791861e-01 -2.153847378423093817e-01
-7.119744084949370944e-01 6.997432427375661623e-01 -5.875232668924589008e-02
8.140613968224886809e-01 4.790385720476376119e-01 3.283688302716610830e-01
5.693699963098964867e-01 -8.156659996476994801e-01 1.025026064097274842e-01
-9.216882499854920363e-01 3.684978615830649673e-01 1.212439517971487940e-01
-9.100644061134334217e-01 3.976503268466349827e-01 -1.168631433950333143e-01
7.407313303291438444e-01 4.340059916549250940e-01 -5.127922537211749843e-01
7.961935193008657929e-01 3.672844743398432921e-01 -4.808097282004668016e-01
4.489709213362720330e-01 -8.881487576651194704e-01 -9.806577411290771928e-02
-6.345385475047751189e-01 6.601506014326281591e-01 -4.019477766559600984e-01
-1.872503846944851003e-01 4.212299460035198173e-01 8.874134470592831558e-01
-3.650029985423586254e-01 7.969086214009249991e-01 -4.813620884448254755e-01
3.072780021975961007e-01 -8.629368831493352543e-01 -4.011485573524660175e-01
-3.311962437375791657e-01 9.435618256726345798e-01 -3.595378181647423867e-04
4.400598872336191070e-01 -8.495748237210442033e-01 -2.908090688876313057e-01
-4.841180370415841538e-02 -8.629090652290171137e-01 5.030350309945560427e-01
-4.223452492382417378e-01 8.344217107060510896e-01 -3.540690598573598691e-01
9.568366483843564474e-01 -9.580691089103822444e-02 -2.743805097562656004e-01
-9.007847557924169024e-01 2.438635182780975741e-01 -3.593291084577257544e-01
-4.223452492382417378e-01 8.344217107060510896e-01 -3.540690598573598691e-01
6.774028105910520070e-01 -7.355303910913891796e-01 -1.097615525999155912e-02
1.985261898132041347e-01 -8.837057015441399654e-01 4.238532588250692457e-01
8.661665924632758751e-01 -4.050786267330407919e-01 2.926888113075580278e-01
9.860224854321409937e-01 -8.800016242386898835e-02 1.414766045521157201e-01
9.849748502474210410e-01 1.696036279154473081e-01 3.254464284623614229e-02
-4.677836276820820233e-02 9.782170241859335924e-01 2.022454903565035766e-01
9.146549236043953757e-01 3.995344735703930672e-01 -6.147011595130094652e-02
-8.015814459144265935e-02 -6.393263902180462699e-01 7.647459961493225933e-01
6.839426090499104438e-01 -6.164258438384416783e-01 -3.901816071703874123e-01
3.623491554217523891e-01 6.349721042956790740e-01 6.822855093957808092e-01
-3.600539298809636302e-01 -8.065680536434441938e-01 4.688380769723169972e-01
7.654070440769353834e-01 6.370344370920950627e-01 -9.131912634364094949e-02
6.786719604628224101e-01 -9.108856802581536847e-04 7.344409713304580478e-01
-1.202812810894378776e-01 -9.261145644762642792e-01 3.575531105785865194e-01
-8.720463319836720961e-01 4.873702216414891875e-01 -4.478238415882843798e-02
8.129857300414854437e-01 -5.734983456858200324e-01 -1.007663150290841053e-01
1.942556318943847726e-01 -9.284972152466901552e-01 3.164769671815861329e-01
6.463627153435950179e-01 6.340710559561084647e-01 -4.244633508471141181e-01
-5.604633130906899741e-01 2.218714412294137128e-01 7.979059708049501820e-01
5.028036011022731788e-01 7.936106210952259543e-01 -3.425941050331074988e-01
-3.592383944688858910e-01 -2.275111183778482371e-01 9.050892038654962946e-01
-8.549141271910433160e-01 1.823149886985916679e-01 -4.856779591715161271e-01
4.053374956456334138e-02 7.390463796840197608e-01 6.724339847317213348e-01
-9.216298757276067954e-01 3.689055618175769435e-01 1.204452515725457779e-01
-2.998164269415375394e-01 3.607217984054386095e-01 8.831703653832344569e-01
7.163412298260728450e-01 6.067861297847154667e-01 3.444790779599768982e-01
2.383181844644882419e-01 9.097084981221988942e-01 3.400513070079328459e-01
4.045646331921902150e-01 -1.681281973406464347e-01 8.989217801505609007e-01
4.086308395043464770e-01 -5.382946724232934299e-01 7.370615189023723701e-01
2.704335343242794121e-01 8.767270896223077203e-01 3.977628864477889548e-01
6.236567226344988946e-01 -7.815993405249019865e-01 1.244038600020021951e-02
6.933868544616191842e-01 -6.912119299881168688e-01 -2.035699828116215027e-01
6.819847697253657998e-03 -9.998526878517746130e-01 -1.575094514523096845e-02
6.315987708990606908e-01 7.493545689048168867e-01 1.988736349048609575e-01
-5.832549893460990953e-01 -6.930474537075914654e-01 -4.236730393974882380e-01
6.946319454486454825e-01 -3.549518416774643526e-01 6.256961326810374091e-01
-5.676943801270577517e-01 7.963837541491277650e-01 2.085569632006975538e-01
-1.383419330709886319e-01 9.600265074842208035e-01 2.433323128600712315e-01
-3.829638626831736725e-01 7.238610092919046668e-01 -5.739023602545022529e-01
4.010741470865319402e-01 2.102115838545316195e-01 8.916000328354525273e-01
9.568366483843564474e-01 -9.580691089103822444e-02 -2.743805097562656004e-01
9.578963349712898978e-02 -8.239681673648837634e-01 5.584808011774805570e-01
-3.645677727382503064e-01 -3.752351119589498740e-01 8.522258795846473500e-01
-1.625992350608662096e-01 -5.765333991506328415e-01 8.007313709487334785e-01
-2.744961436918237352e-01 -6.071672238904838315e-01 7.456539608500988292e-01
-2.664165893456026946e-01 9.467478316248779668e-01 -1.808058191404473547e-01
9.417117420974936426e-01 1.975916543460970731e-01 -2.722802470405743525e-01
7.560131790198765245e-01 -6.428672429165255275e-01 -1.231494260366845783e-01
3.164374378944676547e-01 -6.371965774139334293e-01 7.027431035810698390e-01
6.460099187725686365e-01 4.275542457106259325e-03 7.633170406745526382e-01
4.338226580262523613e-01 -8.583798515872845813e-01 -2.738282888454524056e-01
1.004785851758297766e-01 -8.526107464682131098e-01 5.127952504928063870e-01
8.732155621636644716e-01 2.160990043335980493e-01 4.368017883677021707e-01
9.568366483843564474e-01 -9.580691089103822444e-02 -2.743805097562656004e-01
7.051408248216944896e-01 -7.084443736042435047e-01 -2.971509175943044465e-02
7.821729595090586018e-02 -9.813837682222535941e-01 1.754079647108947038e-01
-4.299670005708595977e-02 3.265923612922209673e-01 9.441868000188163856e-01
7.127479402046632551e-01 -3.425629019180101431e-01 6.120792693463172895e-01
9.500895564451448116e-01 2.228187510169442886e-01 -2.183612578483578592e-01
-1.545649495861546987e-03 -8.673760918780585305e-01 4.976508075005824372e-01
-6.752447140083389643e-01 1.392527511329905154e-01 -7.243295158321867433e-01
4.720238604234182067e-01 7.466679131130480318e-01 4.687008669912816616e-01
2.699628365196164448e-01 -3.417611060092987652e-01 9.001774343525745792e-01
-6.090531972550573547e-01 4.778042220551729780e-01 6.330539694999497424e-01
-8.031297329186906642e-02 -6.789568215268974027e-01 7.297721978967904866e-01
-9.277538160489909869e-01 3.453363971129300158e-01 -1.414766045521157201e-01
8.388188525865992728e-01 2.428042615177797847e-01 4.872668910711117074e-01
-4.834379413527984393e-01 8.731979287153133207e-01 -6.175058014184785227e-02
9.543954973465038627e-01 2.335390924254895084e-01 -1.859804477728726479e-01
7.795788633249461919e-01 -1.701253434882490367e-01 -6.027554755951953780e-01
3.394713484366698730e-01 -3.520280478720390072e-01 8.722588246053980532e-01
-7.205576034825361686e-01 4.013356417791410502e-01 -5.654435804757439454e-01
4.481652128494446607e-01 6.081655082499530518e-02 8.918796382569582626e-01
-4.960604966418366013e-01 7.948903812823967518e-01 3.493898473284251516e-01
-2.625876771927437292e-01 9.289986136324882571e-01 2.607859038664364082e-01
-3.011157724389627588e-01 -7.597799137708799444e-01 5.762497498644151284e-01
-8.549141271910433160e-01 1.823149886985916679e-01 -4.856779591715161271e-01
-8.221619944736752172e-01 -4.830021097978907663e-01 -3.012617081108296402e-01
-8.221619944736752172e-01 -4.830021097978907663e-01 -3.012617081108296402e-01
4.926248509472888615e-01 -8.402197353579853312e-01 2.266088095024517135e-01
5.732872628372870372e-01 7.895460652165398052e-01 2.189948062617258218e-01
1.735362694262087280e-01 -9.776065915244960269e-01 -1.190399739645946198e-01
-5.916638415920589811e-01 4.827487534751389031e-01 6.456682891165760330e-01
8.154134511324078183e-01 4.889721760675461715e-01 3.098501488528045411e-01
9.568366483843564474e-01 -9.580691089103822444e-02 -2.743805097562656004e-01
2.138330543548317419e-01 8.026964398053518801e-01 5.567349911664406514e-01
6.042251097571155194e-01 -7.917217306995670834e-01 8.993729969864393270e-02
9.948723971646573627e-01 9.811261223095117667e-02 -2.455256974467726061e-02
-1.571984434307998613e-01 -6.479790144109935923e-01 7.452595831426059858e-01
9.910487652160085981e-01 6.914792381987328040e-02 1.141968020358969105e-01
7.901577116517568070e-03 5.658719992542152744e-01 8.244552416833245134e-01
-6.752447140083389643e-01 1.392527511329905154e-01 -7.243295158321867433e-01
-2.670554654868336764e-01 -8.418502003098090603e-01 4.690091881743306823e-01
-2.118688394346527892e-01 9.750535963312018106e-01 -6.619727455268092919e-02
4.665656550672868663e-01 3.910332044217896263e-01 7.933533402912351651e-01
5.133852280397925849e-01 7.538572915614917269e-01 4.100424265732781071e-01
-3.827134254189006324e-01 9.219760279291542293e-01 -5.908162089948799239e-02
6.953603940235990599e-01 4.996671317920467481e-01 5.165333288666418277e-01
-7.888072952055957821e-01 3.926215135973184500e-01 -4.728968154798494639e-01
-2.998164269415375394e-01 3.607217984054386095e-01 8.831703653832344569e-01
-4.171083682294858819e-01 -7.089184455432017140e-01 5.687312605453882508e-01
-1.872503846944851003e-01 4.212299460035198173e-01 8.874134470592831558e-01
8.757775046285227738e-01 4.344692273571706953e-01 -2.103574407200771157e-01
-6.168093440792039583e-01 3.956046104021799237e-01 -6.804727954041377425e-01
8.781068907975372317e-01 -4.038097742675535451e-01 2.566436333515204060e-01
2.803568793936032574e-02 -8.587391054195211426e-01 5.116455306411338277e-01
1.653598784698254165e-01 9.807264747008984651e-01 1.040754169494061410e-01
-9.394077793572401802e-01 2.140024476318898305e-01 -2.677983877671018531e-01
-3.170663081560448071e-01 8.951888764619715388e-01 3.132185047072559292e-01
-8.549141271910433160e-01 1.823149886985916679e-01 -4.856779591715161271e-01
-1.344415250372758275e-01 -9.501388437606107518e-01 2.813568089151234353e-01
-5.467079270932931889e-01 4.154749336865271592e-01 7.269738798138005720e-01
-8.549141271910433160e-01 1.823149886985916679e-01 -4.856779591715161271e-01
9.123816416319685541e-01 -2.114787093388204864e-01 3.504803782087391739e-01
6.752202842594241528e-01 6.377811170227338788e-01 -3.705574375098362183e-01
-1.406835007565351015e-01 -7.400075240484192962e-01 6.577210783961648932e-01
-4.991737612725916651e-01 5.374890256259915455e-01 6.796551356302664715e-01
-1.909754134990681862e-01 -4.208994665532151958e-01 8.867762009064512618e-01
6.839426090499104438e-01 -6.164258438384416783e-01 -3.901816071703874123e-01
-1.973826929217636361e-01 9.796679712677638374e-01 -3.592685078122714176e-02
8.048771270280528078e-01 -2.457392699296367666e-01 5.401712891310651576e-01
5.652851468197225282e-01 8.209592869898189038e-01 -8.048945204294014055e-02
7.909640433512561408e-01 5.617619834161229342e-01 2.424857853850730660e-01
4.953527949314716072e-01 -6.684543928907248356e-01 -5.547921531336504897e-01
3.970413247887571995e-01 -8.412124680929036202e-01 -3.670419184984657357e-01
5.693699963098964867e-01 -8.156659996476994801e-01 1.025026064097274842e-01
4.826150877905241443e-01 -8.752591902497843801e-01 3.168638383022814170e-02
4.589739143487368556e-01 3.917694515999787241e-01 7.974080779252554763e-01
3.355060554491976488e-01 -7.655126596433988739e-01 -5.490228179981316847e-01
2.320521264995802357e-01 -3.155796507252288663e-01 9.200876559519561848e-01
6.543177780445053049e-01 -7.352578301387834303e-01 -1.768167654791515386e-01
6.431829664730523977e-01 -6.525182916696758983e-01 -4.006688790952099288e-01
2.977801846115727402e-01 -9.030468249226597521e-01 3.095696911033131715e-01
-7.186324194423678868e-01 -4.318427791136768973e-02 -6.940479550201718029e-01
-1.909754134990681862e-01 -4.208994665532151958e-01 8.867762009064512618e-01
-4.503605353652090915e-01 8.819787381237786938e-01 1.388844616332197968e-01
-7.062420876037924788e-01 1.086909593316118250e-01 -6.995772931253637639e-01
-4.486062713861864171e-01 7.330406982591496368e-01 -5.112765865641821783e-01
1.966561831865414611e-01 5.503061841202237098e-02 9.789269516423030337e-01
-1.722585185942516750e-01 9.435053450410937348e-01 2.830630082695378413e-01
1.087345718204534850e-01 9.454447996157906431e-01 3.071008364861290141e-01
-1.642478642569411007e-01 -9.427979384569822319e-01 2.900942714503303987e-01
5.578687968104195649e-01 -8.265733959340672010e-01 -7.455753938615944376e-02
9.838140191914274135e-01 -1.564070179228849999e-01 8.744609989519229465e-02
-9.526768269657813759e-01 2.404752410773222104e-01 -1.859530096320423653e-01
-4.074787389022900275e-01 6.433264617086265069e-01 6.481451542733760451e-01
-6.119325857453831174e-01 4.993860057257601959e-01 -6.133124226593165140e-01
3.138583882305782669e-01 -8.717752103079609016e-01 -3.761660468859651663e-01
4.206032889873709824e-01 5.357736771875362125e-01 7.321471437668467530e-01
7.410089854078829585e-01 3.924218910485902101e-01 -5.448951669547347221e-01
3.773352755201451747e-01 -9.247195220455011189e-01 -5.011881279595694488e-02
1.700395065723600205e-02 8.723302975479074739e-01 4.886212414969549056e-01
2.128908591478561874e-01 -9.629367747068794392e-01 -1.656208018589461484e-01
-9.007847557924169024e-01 2.438635182780975741e-01 -3.593291084577257544e-01
3.874318306776923793e-01 3.531543663862309335e-01 8.515741718018881024e-01
2.084007753457512713e-01 -6.283059592786331971e-01 7.495336806109824668e-01
-1.547613555741941538e-01 -7.987755049600779866e-01 5.813833636221545920e-01
-3.200726999944875639e-01 -6.495918991062642478e-01 6.896258633010771133e-01
9.374636334222770095e-01 9.476455405063026471e-02 3.349352404664037164e-01
-1.869959940371511420e-01 9.822883932281154529e-01 -1.191682606170324683e-02
4.179943847517702538e-01 -6.646201469873657119e-01 -6.193228193232359624e-01
-8.996432673505071476e-01 2.166828456708712047e-01 -3.790653451621202041e-01
2.527137561807644706e-01 -7.028707917169735309e-01 6.649123307535844685e-01
-5.571107101892543989e-01 2.207635915889371581e-01 8.005567395389144858e-01
-4.769777157018073588e-01 5.731634748144740499e-01 6.663151580614714575e-01
5.522369542538954068e-01 -8.080092642490315225e-01 -2.053177421562000504e-01
-9.294728840368350342e-01 -7.805001877348781425e-02 -3.605389748830302166e-01
-6.386144515870684213e-01 7.387699215105791861e-01 -2.153847378423093817e-01
7.583036408976799869e-01 4.533914871662405588e-01 4.684140770370881501e-01
7.588570434015684540e-01 4.151746601177452312e-01 -5.017628815246749641e-01
2.462666288500885425e-01 -9.522423986112044103e-01 1.805191452505599814e-01
6.944610280572500738e-01 -3.571389476846836830e-01 6.246404186060522390e-01
7.938459701080069486e-01 1.292618475221884722e-01 5.942221390342402598e-01
-8.221619944736752172e-01 -4.830021097978907663e-01 -3.012617081108296402e-01
-2.453117764672538004e-01 5.641784608575006743e-01 7.883684396466804634e-01
3.605494783613055754e-01 4.393480105117090195e-01 8.227863631057540372e-01
-2.082098870244329658e-01 9.753643839506287438e-01 7.289006424666787110e-02
4.651001195832524804e-01 -8.304960217903197828e-01 -3.065260780979277566e-01
3.914033563931132997e-01 -1.279303364095346340e-01 9.112832938391599580e-01
-2.664165893456026946e-01 9.467478316248779668e-01 -1.808058191404473547e-01
-4.171083682294858819e-01 -7.089184455432017140e-01 5.687312605453882508e-01
8.460461726911813196e-01 8.991895013838098472e-02 5.254716510722677869e-01
-6.297215384501438917e-01 4.066839159995604969e-01 -6.618602393853602051e-01
1.506385601582164169e-01 9.825120378182566894e-01 1.094445966490620731e-01
1.966561831865414611e-01 5.503061841202237098e-02 9.789269516423030337e-01
-9.710795500689654025e-01 -6.494846160711303940e-02 -2.297524858901972000e-01
-2.337213658074716871e-01 -9.158701548302535800e-01 3.264294451428936816e-01
8.420078268811780342e-01 5.095023017563939938e-01 -1.772857128360112167e-01
-2.615367310588004868e-01 -7.707673052238286360e-01 5.809615301421204858e-01
-7.710142286803247647e-01 6.352451773800518176e-01 -4.472833316668974046e-02
9.709896906867452326e-01 1.134929905226809838e-01 2.104717598213056706e-01
8.958807450011573026e-02 4.143612553928812670e-01 9.056924019426226824e-01
-9.210491018812303476e-01 3.339497663045501441e-01 -2.003649308360008208e-01
-7.823454538612704123e-01 4.168566051981949516e-01 -4.627809001301147473e-01
2.699628365196164448e-01 -3.417611060092987652e-01 9.001774343525745792e-01
-1.948646597247301326e-01 -4.990709304385688716e-01 8.443672013890320960e-01
8.578577571975075644e-01 4.644865066368588091e-01 2.198462043528374987e-01
-2.998164269415375394e-01 3.607217984054386095e-01 8.831703653832344569e-01
8.596397239107921306e-01 4.354746979371926924e-02 5.090414157503713177e-01
8.871679937440518637e-01 -3.804423166816721658e-01 2.611447769993427426e-01
9.391716833783574359e-01 1.216987574354326390e-01 3.211634499424458888e-01
7.455897812104383959e-01 5.295360741468828625e-01 -4.045830252638852875e-01
4.059090656023172095e-01 -6.684780388818538643e-01 -6.231973539694503073e-01
-4.421655555592090558e-01 2.471179763177524247e-01 8.622194194389469768e-01
7.129218574233150418e-01 -3.403013881246945149e-01 6.131373340847027231e-01
-8.221619944736752172e-01 -4.830021097978907663e-01 -3.012617081108296402e-01
8.914415800495761877e-01 2.306769264372293127e-01 -3.900257234698605857e-01
4.635037154345690857e-01 6.176657036895378816e-01 6.353372209024574779e-01
-4.223452492382417378e-01 8.344217107060510896e-01 -3.540690598573598691e-01
-2.337213658074716871e-01 -9.158701548302535800e-01 3.264294451428936816e-01
4.888795686061396251e-01 -8.397802774115550317e-01 -2.361479474186604921e-01
-5.832549893460990953e-01 -6.930474537075914654e-01 -4.236730393974882380e-01
-1.475297786939857858e-01 6.029044433106589551e-01 7.840543327058195899e-01
7.390780848565974281e-01 -6.718941390766233202e-01 -4.818558248260074173e-02
-4.264315020162658398e-01 1.849387412651619031e-02 9.043307750529913092e-01
2.846896056535039854e-01 -9.149723033183495557e-01 -2.859676775322105846e-01
4.314853377219275976e-01 6.465766247918617315e-01 6.290938495993727564e-01
-8.802260189048052852e-02 -7.517463651335457575e-01 6.535513935911478889e-01
2.040480870332229690e-01 8.434208198383459365e-01 4.969966789036869836e-01
-2.846837022398986394e-01 5.705706402709106451e-01 7.703274200882556100e-01
2.084007753457512713e-01 -6.283059592786331971e-01 7.495336806109824668e-01
9.638226340566671269e-01 -2.236981293905815071e-01 1.449312836734105436e-01
3.601329251976050361e-01 -7.647635466663943449e-01 5.342667815603492354e-01
9.686669405009896705e-01 1.940229480676837481e-01 1.550466188073021945e-01
5.791834806360415255e-01 -6.611487958457029634e-01 -4.768949208264825490e-01
2.755909151424547066e-01 9.059394668721315602e-01 3.214394653031615867e-01
2.271110629832878147e-01 -7.212918095033916677e-01 6.543383609524386912e-01
-2.988234939251921962e-01 6.861365279687878793e-01 6.632655459657749164e-01
-4.152363605546426917e-01 6.181303016755324009e-01 6.674531406951726975e-01
9.401218323706561630e-01 -2.477976817971291323e-01 2.340240355091940949e-01
3.909804639828388106e-01 -9.164547089396769541e-01 -8.511781979148699828e-02
5.732872628372870372e-01 7.895460652165398052e-01 2.189948062617258218e-01
-2.047270935673689285e-01 -8.962211988547672536e-01 3.935408236546514282e-01
6.117682303827819412e-01 -7.825573708018889185e-01 -1.155144739760112504e-01
4.692738575632295905e-01 -3.472443881252527675e-01 -8.119134076508679465e-01
3.441470617076238803e-01 -6.744572966204522846e-01 -6.531999349000581212e-01
7.469262303509361933e-01 -6.524535555499669792e-01 -1.280842077070642460e-01
-2.352211473545257892e-01 9.715457303721343196e-01 -2.774717342174682147e-02
-9.522200757433689766e-01 2.909666136658754509e-01 9.281894786683350662e-02
-2.118688394346527892e-01 9.750535963312018106e-01 -6.619727455268092919e-02
6.623475735287041033e-01 5.897839460917115861e-01 4.620071306518188647e-01
5.035030669336768572e-01 7.911426548055326968e-01 -3.472433747901247925e-01
2.084007753457512713e-01 -6.283059592786331971e-01 7.495336806109824668e-01
8.388100221266626688e-01 5.426505394014359274e-01 -4.391057807861757645e-02
5.517688658863346696e-01 1.843066502753925584e-01 8.133770203926172782e-01
5.819991886654434232e-01 -9.529350595970219329e-02 8.075865849026182541e-01
8.869471680145396553e-02 -9.809067338019310522e-01 1.730757833827059333e-01
-1.183486697266629972e-01 -9.546150915335257503e-01 2.733196286225477722e-01
8.871050391112030864e-01 3.789662655490736443e-01 -2.634942488163641294e-01
3.478883369187995012e-01 -8.809108445225135586e-01 3.208890603284938470e-01
-8.221619944736752172e-01 -4.830021097978907663e-01 -3.012617081108296402e-01
2.846896056535039854e-01 -9.149723033183495557e-01 -2.859676775322105846e-01
9.915210175372634049e-01 -3.635742521603087946e-02 1.247566006812090705e-01
4.088677056050839531e-01 7.530751144505495320e-01 5.154658779284289061e-01
9.568366483843564474e-01 -9.580691089103822444e-02 -2.743805097562656004e-01
2.320521264995802357e-01 -3.155796507252288663e-01 9.200876559519561848e-01
-3.650029985423586254e-01 7.969086214009249991e-01 -4.813620884448254755e-01
-8.496520880917628193e-02 -7.199018429249769424e-01 6.888557540191087014e-01
6.615593100465607668e-01 6.139288143157410893e-01 4.306166395340368935e-01
7.795788633249461919e-01 -1.701253434882490367e-01 -6.027554755951953780e-01
-2.445926880937070724e-01 -8.250858905030373780e-01 5.093208126749821929e-01
7.613292325921303672e-01 5.537082965681539536e-03 6.483418390886932503e-01
-2.810382471105726254e-01 9.538594977548040532e-01 -1.056861495370585713e-01
4.245127061385707279e-01 7.004019145327186058e-01 5.737822935973275751e-01
6.125788822762249369e-02 7.841818821270611917e-01 6.174999974684631798e-01
4.122165002997928984e-01 3.318252129550031682e-01 8.485102149815036965e-01
8.646677899706222137e-01 2.803921056214078722e-01 -4.168091650773927959e-01
-1.757101895489400489e-01 9.843812897675393581e-01 -1.092728897172084122e-02
4.888241025957064667e-01 5.843223556458954082e-01 6.477795777993731186e-01
9.489535849401377066e-01 2.530876911196769941e-01 1.882384504636922806e-01
-8.742723959384474108e-01 4.677989069682734202e-01 1.296609437700317335e-01
3.188409976743602492e-01 4.108000422193772705e-01 8.541567441135008432e-01
9.948723971646573627e-01 9.811261223095117667e-02 -2.455256974467726061e-02
6.980534879312453311e-01 2.709715752498434438e-01 6.627938845475574992e-01
6.946319454486454825e-01 -3.549518416774643526e-01 6.256961326810374091e-01
-9.522200757433689766e-01 2.909666136658754509e-01 9.281894786683350662e-02
6.506725709916280076e-01 -7.586380661391164404e-01 -3.306795977750166121e-02
1.906867399779911196e-02 -7.170597425117108958e-01 6.967508244279332352e-01
4.189173301374501390e-01 -8.408906589891744776e-01 -3.426531338471345833e-01
-9.526768269657813759e-01 2.404752410773222104e-01 -1.859530096320423653e-01
-5.432594259220471233e-01 4.133540260046146275e-01 7.307582673720661726e-01
7.511296009704663268e-01 -1.147149323134616233e-01 6.501113803420656145e-01
-9.271760413395021758e-03 4.306743631871284284e-01 9.024597649492180906e-01
-6.752447140083389643e-01 1.392527511329905154e-01 -7.243295158321867433e-01
-7.595721572390999876e-01 3.886927104556751611e-01 -5.215056229665798737e-01
4.682764928106318281e-01 7.958934550949203768e-01 3.837586929543672642e-01
2.228229410653195797e-01 -2.761474980194404960e-01 9.349291397066433751e-01
7.410089854078829585e-01 3.924218910485902101e-01 -5.448951669547347221e-01
-3.592383944688858910e-01 -2.275111183778482371e-01 9.050892038654962946e-01
-7.201562710045695814e-01 6.935062047318915068e-01 -2.059342932006949858e-02
-4.250542736436529467e-01 -6.264732985775757212e-01 6.533452920367592842e-01
-5.832549893460990953e-01 -6.930474537075914654e-01 -4.236730393974882380e-01
-4.560941852916056832e-02 9.375830481982456721e-01 3.447576085784300193e-01
-6.119325857453831174e-01 4.993860057257601959e-01 -6.133124226593165140e-01
-9.306130162411180295e-01 -1.654155388961288387e-01 -3.264921338934704820e-01
9.343425854876211689e-01 3.563423638035058127e-01 -4.904355537389878256e-03
