-2.876939999999999742e+01 3.205939999999999657e+01
4.124069999999998970e+01 1.193956999999999908e+02
-2.073639999999999617e+01 1.168464000000000027e+02
3.473329999999999984e+01 1.277332999999999856e+02
-1.243810000000000038e+01 1.308411000000000115e+02
-3.368199999999999861e+00 1.354963999999999942e+02
1.916979999999999862e+01 3.047489999999999810e+01
5.883300000000000196e+00 -5.508330000000000126e+01
6.963899999999999757e+00 1.582081000000000017e+02
-6.711100000000000065e+00 1.563971999999999980e+02
-3.085000000000000142e+01 3.036670000000001934e+01
-2.873830000000000240e+01 2.476389999999999958e+01
-5.627800000000000580e+00 -6.318280000000000740e+01
-2.369999999999999929e+01 1.338667000000000087e+02
6.254999999999999005e+01 1.139666999999999888e+02
-2.877439999999999642e+01 1.146089000000000198e+02
-2.365000000000000568e+01 -7.040000000000000568e+01
-2.060000000000000026e-02 1.093413999999999788e+02
-1.690640000000000143e+01 -6.261690000000000822e+01
3.020100000000000051e+01 -9.321110000000000184e+01
-2.073639999999999617e+01 1.168464000000000027e+02
-1.592510000000000048e+01 -5.717899999999999316e+00
-2.105900000000000105e+01 1.648517999999999688e+02
-2.073639999999999617e+01 1.168464000000000027e+02
-6.289000000000000146e-01 -4.735580000000000211e+01
2.507809999999999917e+01 -7.733859999999999957e+01
1.701899999999999835e+01 -2.506400000000001427e+01
8.133300000000000196e+00 -5.100000000000030731e+00
1.864999999999999991e+00 9.770000000000015561e+00
1.166830000000000034e+01 9.273779999999997870e+01
-3.524199999999999999e+00 2.359639999999999560e+01
4.988439999999999230e+01 -9.714639999999999986e+01
-2.296580000000000155e+01 -4.202779999999998495e+01
4.302250000000000085e+01 6.028860000000000241e+01
2.795889999999999986e+01 -1.140561000000000007e+02
-5.239499999999999602e+00 3.976999999999999602e+01
4.725999999999999801e+01 -7.689999999931711183e-02
2.094999999999999929e+01 -9.739999999999999147e+01
-2.566699999999999982e+00 1.508000000000000114e+02
-5.783299999999998775e+00 -3.520000000000000284e+01
1.844999999999999929e+01 -7.818330000000000268e+01
-2.511670000000000158e+01 4.445000000000000995e+01
5.293059999999999832e+01 1.584028000000000418e+02
-2.003500000000000014e+01 5.764309999999999690e+01
6.483530000000000371e+01 -1.476533000000000015e+02
-2.905689999999999884e+01 1.679617000000000075e+02
4.225520000000000209e+01 8.686069999999998004e+01
6.917800000000000615e+00 1.581850000000000023e+02
6.202719999999999345e+01 1.297318999999999960e+02
2.014999999999999858e+01 4.026670000000000016e+01
1.987999999999999901e+01 7.531999999999999318e+01
6.401670000000001437e+01 -2.256670000000001153e+01
4.748169999999999646e+01 -5.279710000000000036e+01
2.343840000000000146e+01 7.285720000000000596e+01
7.127999999999999892e-01 -5.141279999999998296e+01
-1.174579999999999913e+01 -4.491000000000000369e+01
-9.024999999999999689e-01 -8.960920000000000130e+01
1.147109999999999985e+01 4.987390000000000612e+01
-2.506670000000000087e+01 -1.300833000000000084e+02
3.873329999999999984e+01 -2.706670000000000442e+01
1.203780000000000250e+01 1.254828000000000117e+02
1.408330000000000126e+01 9.820000000000000284e+01
-3.502279999999999660e+01 1.178813999999999851e+02
6.307499999999999574e+01 2.766000000000000725e+01
-1.592510000000000048e+01 -5.717899999999999316e+00
3.395080000000000098e+01 -8.336889999999999645e+01
5.845459999999999923e+01 -1.341739000000000033e+02
5.319999999999999574e+01 -1.057500000000000000e+02
4.821530000000000626e+01 -1.143273999999999830e+02
-1.041670000000000051e+01 1.057166999999999888e+02
-1.580000000000000071e+01 1.184999999999999254e+01
-7.073900000000000077e+00 -4.037580000000001235e+01
4.464750000000000085e+01 -6.359059999999999491e+01
4.975749999999999318e+01 3.791999999997875404e-01
-1.589220000000000077e+01 -6.318810000000000571e+01
3.085019999999999740e+01 -8.327880000000001814e+01
2.589999999999999858e+01 1.389999999999999503e+01
-1.592510000000000048e+01 -5.717899999999999316e+00
-1.702800000000000091e+00 -4.513389999999999702e+01
1.010239999999999938e+01 -8.544310000000001537e+01
7.076699999999999591e+01 9.749999999999998579e+01
3.774000000000000199e+01 -2.566999999999999815e+01
-1.261280000000000001e+01 1.319869999999999344e+01
2.984469999999999956e+01 -9.010209999999999297e+01
-4.641309999999999292e+01 1.683474999999999682e+02
2.794999999999999929e+01 5.769999999999999574e+01
6.418139999999999645e+01 -5.169419999999999504e+01
3.927580000000000382e+01 1.418857000000000141e+02
4.686729999999999308e+01 -9.674609999999998422e+01
-8.133300000000000196e+00 1.595833000000000084e+02
2.916109999999999758e+01 1.614359999999999573e+01
-3.540299999999999336e+00 1.189706999999999937e+02
-1.071829999999999750e+01 1.375000000000000000e+01
-3.706750000000000256e+01 -1.231049999999999400e+01
6.072220000000000795e+01 -4.604030000000000200e+01
-3.443310000000000315e+01 1.508830999999999847e+02
6.311039999999999850e+01 7.727899999999951142e+00
2.044999999999999929e+01 1.219667000000000030e+02
1.511669999999999980e+01 1.057832999999999970e+02
3.518720000000000425e+01 -1.116193999999999988e+02
-2.905689999999999884e+01 1.679617000000000075e+02
-1.753340000000000032e+01 -1.495666999999999973e+02
-1.753340000000000032e+01 -1.495666999999999973e+02
1.309750000000000192e+01 -5.961670000000000158e+01
1.265000000000000213e+01 5.401669999999999305e+01
-6.836700000000000443e+00 -7.993420000000000414e+01
4.021579999999999444e+01 1.407883999999999673e+02
1.805020000000000024e+01 3.094950000000000401e+01
-1.592510000000000048e+01 -5.717899999999999316e+00
3.383030000000000115e+01 7.508320000000000505e+01
5.160000000000000142e+00 -5.264990000000000236e+01
-1.406900000000000039e+00 5.632200000000072926e+00
4.818139999999999645e+01 -1.036363999999999947e+02
6.557299999999999685e+00 3.991200000000079573e+00
5.553329999999999700e+01 8.920000000000000284e+01
-4.641309999999999292e+01 1.683474999999999682e+02
2.796999999999999531e+01 -1.076003000000000043e+02
-3.795599999999999863e+00 1.022592000000000070e+02
5.250000000000000711e+01 3.996669999999999590e+01
2.420749999999999957e+01 5.574470000000000169e+01
-3.387100000000000222e+00 1.125434000000000196e+02
3.109999999999999787e+01 3.570000000000000284e+01
-2.822250000000000014e+01 1.535386000000000024e+02
6.202719999999999345e+01 1.297318999999999960e+02
3.466179999999999950e+01 -1.204714000000000027e+02
6.254999999999999005e+01 1.139666999999999888e+02
-1.214329999999999998e+01 2.638579999999998904e+01
-4.288060000000000116e+01 1.473249999999999886e+02
1.487099999999999511e+01 -2.469600000000000861e+01
3.077349999999999852e+01 -8.813009999999999877e+01
5.973900000000000432e+00 8.042940000000000111e+01
-1.553330000000000233e+01 1.671667000000000201e+02
1.825329999999999941e+01 1.095036000000000058e+02
-2.905689999999999884e+01 1.679617000000000075e+02
1.634120000000000061e+01 -9.805369999999999209e+01
4.663329999999999842e+01 1.427666999999999859e+02
-2.905689999999999884e+01 1.679617000000000075e+02
2.051669999999999661e+01 -1.304999999999999716e+01
-2.175000000000000000e+01 4.336670000000000158e+01
4.112630000000000052e+01 -1.007640999999999991e+02
4.281669999999999732e+01 1.328832999999999629e+02
6.247090000000000032e+01 -1.144052999999999969e+02
-2.296580000000000155e+01 -4.202779999999998495e+01
-2.058899999999999952e+00 1.013914000000000044e+02
3.269530000000000314e+01 -1.697810000000001551e+01
-4.616699999999999804e+00 5.545000000000000284e+01
1.403329999999999878e+01 3.538329999999999842e+01
-3.369639999999999702e+01 -5.345999999999999375e+01
-2.153330000000000055e+01 -6.473329999999999984e+01
5.883300000000000196e+00 -5.508330000000000126e+01
1.815800000000000081e+00 -6.112780000000000769e+01
5.288329999999999131e+01 4.048329999999999274e+01
-3.329999999999999716e+01 -6.633329999999999416e+01
6.693890000000000384e+01 -5.367219999999998237e+01
-1.018440000000000012e+01 -4.833359999999999701e+01
-2.362000000000000099e+01 -4.541280000000000427e+01
1.803330000000000055e+01 -7.175000000000000000e+01
-4.395139999999999958e+01 -1.765611000000000388e+02
6.247090000000000032e+01 -1.144052999999999969e+02
7.983299999999999841e+00 1.170499999999999972e+02
-4.439309999999999690e+01 1.712508000000000266e+02
-3.074889999999999191e+01 1.214658000000000158e+02
7.821670000000001721e+01 1.563329999999998954e+01
1.644310000000000116e+01 1.003466999999999985e+02
1.788459999999999539e+01 8.343930000000000291e+01
1.686360000000000170e+01 -9.988249999999999318e+01
-4.275799999999999379e+00 -5.598389999999999134e+01
5.016700000000000159e+00 -9.033300000000000551e+00
-1.071669999999999945e+01 1.658333000000000368e+02
4.040189999999999060e+01 1.223499000000000052e+02
-3.782939999999999259e+01 1.407828000000000372e+02
-2.209639999999999915e+01 -7.020000000000000284e+01
4.706669999999999021e+01 5.186670000000000158e+01
-3.301749999999999829e+01 2.790469999999998407e+01
-2.872799999999999798e+00 -6.780190000000000339e+01
2.925000000000000000e+01 8.888330000000001974e+01
-9.533300000000000551e+00 -7.753329999999999700e+01
-2.105900000000000105e+01 1.648517999999999688e+02
5.838329999999999131e+01 4.234999999999999432e+01
4.854999999999999716e+01 -7.165000000000000568e+01
3.554789999999999850e+01 -1.009651000000000067e+02
4.360050000000000381e+01 -1.162308000000000021e+02
1.956859999999999999e+01 5.772199999999959807e+00
-6.828000000000000735e-01 1.007783000000000015e+02
-3.826670000000000016e+01 -5.783330000000000126e+01
-2.227580000000000382e+01 1.664579999999999984e+02
4.167560000000000997e+01 -7.022419999999998197e+01
5.318329999999999558e+01 1.583832999999999913e+02
4.178329999999999700e+01 1.297666999999999859e+02
-1.184810000000000052e+01 -5.564920000000000755e+01
-2.113329999999999487e+01 -1.751999999999999318e+02
-1.243810000000000038e+01 1.308411000000000115e+02
2.793140000000000001e+01 3.087530000000000285e+01
-3.011670000000000869e+01 2.868329999999999913e+01
1.040000000000000036e+01 -7.550000000000000000e+01
3.865579999999999217e+01 -2.721530000000000271e+01
3.645720000000000027e+01 9.248300000000046595e+00
-1.753340000000000032e+01 -1.495666999999999973e+02
5.203329999999998989e+01 1.134999999999999858e+02
5.536470000000000624e+01 5.062610000000000809e+01
4.179999999999998828e+00 1.020499999999999972e+02
-1.785000000000000142e+01 -6.075000000000000000e+01
6.568330000000000268e+01 -1.810000000000002984e+01
-1.041670000000000051e+01 1.057166999999999888e+02
3.466179999999999950e+01 -1.204714000000000027e+02
3.169999999999999929e+01 6.066699999999968007e+00
-4.144189999999999685e+01 1.471450000000000102e+02
6.283299999999999663e+00 8.128329999999999700e+01
7.821670000000001721e+01 1.563329999999998954e+01
-1.328250000000000064e+01 -1.761735999999999649e+02
1.905219999999999914e+01 -1.043157999999999959e+02
-1.021169999999999867e+01 3.117830000000000368e+01
3.551820000000000022e+01 -1.087431000000000125e+02
-2.563600000000000101e+00 1.405146000000000015e+02
1.215000000000000036e+01 6.666699999999958770e+00
6.491670000000000584e+01 7.779999999999999716e+01
-1.155829999999999913e+01 1.600706000000000131e+02
-2.756670000000000087e+01 1.519499999999999886e+02
6.418139999999999645e+01 -5.169419999999999504e+01
5.760419999999999874e+01 -1.113284000000000020e+02
1.269999999999999929e+01 2.843330000000000624e+01
6.202719999999999345e+01 1.297318999999999960e+02
3.060000000000000497e+01 2.900000000000067857e+00
1.513800000000000168e+01 -2.321100000000000563e+01
1.873329999999999629e+01 7.383299999999995755e+00
-2.386500000000000199e+01 3.538329999999999842e+01
-3.854999999999999716e+01 -5.873329999999999274e+01
5.956670000000000442e+01 1.508000000000000114e+02
3.781669999999999732e+01 -2.551669999999999661e+01
-1.753340000000000032e+01 -1.495666999999999973e+02
-2.295609999999999928e+01 1.450809999999999711e+01
3.944500000000000028e+01 5.311499999999999488e+01
-2.073639999999999617e+01 1.168464000000000027e+02
1.905219999999999914e+01 -1.043157999999999959e+02
-1.365929999999999822e+01 -5.979410000000000025e+01
-2.506670000000000087e+01 -1.300833000000000084e+02
5.163330000000000553e+01 1.037500000000000000e+02
-2.761899999999999800e+00 -4.227389999999999048e+01
6.473329999999999984e+01 1.775167000000001281e+02
-1.661670000000000158e+01 -7.271670000000000300e+01
3.898329999999999984e+01 5.628329999999998989e+01
4.080989999999999895e+01 -9.667839999999999634e+01
2.980150000000000077e+01 7.639979999999999905e+01
5.038329999999999842e+01 1.165167000000000144e+02
4.854999999999999716e+01 -7.165000000000000568e+01
8.333299999999999486e+00 -1.306670000000002752e+01
3.229419999999999646e+01 -6.478390000000000271e+01
8.919499999999997542e+00 1.132639999999998004e+01
-2.848280000000000101e+01 -4.878079999999999927e+01
1.875000000000000000e+01 7.307999999999999829e+01
4.086949999999999505e+01 -7.252249999999999375e+01
4.154939999999999145e+01 1.135339000000000027e+02
4.187080000000000268e+01 1.238917000000000144e+02
1.353410000000000046e+01 -1.476619999999998356e+01
-4.882799999999999585e+00 -6.689579999999999416e+01
1.265000000000000213e+01 5.401669999999999305e+01
2.317500000000000071e+01 -1.028675000000000068e+02
-6.633300000000001084e+00 -5.198330000000000695e+01
-5.428329999999999700e+01 -3.650000000000000711e+01
-4.078329999999999700e+01 -6.296670000000000300e+01
-7.358900000000000219e+00 -4.113779999999999148e+01
-1.590000000000000080e+00 1.036099999999999994e+02
5.325800000000000090e+00 1.630086000000000297e+02
-3.795599999999999863e+00 1.022592000000000070e+02
2.751670000000000016e+01 4.168330000000000268e+01
-2.031879999999999953e+01 5.752629999999999910e+01
4.854999999999999716e+01 -7.165000000000000568e+01
-2.516700000000000159e+00 3.289999999999999858e+01
5.442719999999999914e+01 1.847079999999997924e+01
5.386080000000000467e+01 -9.298800000000028376e+00
9.966699999999997672e+00 -8.483329999999997995e+01
1.586190000000000033e+01 -9.706719999999999970e+01
-1.527749999999999986e+01 2.313189999999998392e+01
1.871670000000000300e+01 -6.845000000000000284e+01
-1.753340000000000032e+01 -1.495666999999999973e+02
-1.661670000000000158e+01 -7.271670000000000300e+01
7.166699999999999626e+00 -2.100000000000031175e+00
3.102859999999999729e+01 6.150110000000000099e+01
-1.592510000000000048e+01 -5.717899999999999316e+00
6.693890000000000384e+01 -5.367219999999998237e+01
-2.877439999999999642e+01 1.146089000000000198e+02
4.353960000000000008e+01 -9.673109999999999786e+01
2.550669999999999860e+01 4.286140000000001038e+01
-3.706750000000000256e+01 -1.231049999999999400e+01
3.061859999999999715e+01 -1.065122000000000071e+02
4.041669999999999874e+01 4.166999999999148607e-01
-6.066699999999999982e+00 1.064167000000000058e+02
3.501439999999999486e+01 5.877999999999999403e+01
3.813380000000000081e+01 8.553329999999999700e+01
5.805000000000000426e+01 3.883330000000000126e+01
-2.463329999999999487e+01 1.796670000000001366e+01
-6.260999999999999899e-01 1.001205999999999960e+02
4.037440000000000140e+01 5.008529999999999660e+01
1.085000000000000142e+01 1.493329999999999558e+01
7.450000000000001066e+00 1.518499999999999943e+02
5.866669999999999163e+01 5.218330000000000979e+01
-1.406900000000000039e+00 5.632200000000072926e+00
4.151329999999999387e+01 2.121530000000000271e+01
3.873329999999999984e+01 -2.706670000000000442e+01
5.325800000000000090e+00 1.630086000000000297e+02
-1.895000000000000240e+00 -4.938079999999999359e+01
4.416689999999999827e+01 -8.847669999999997970e+01
-2.003859999999999886e+01 -6.351830000000000354e+01
-1.071669999999999945e+01 1.658333000000000368e+02
4.695000000000000284e+01 1.427333000000000141e+02
4.054999999999999716e+01 -8.683299999999976038e+00
6.448329999999998563e+01 9.123330000000001405e+01
-4.641309999999999292e+01 1.683474999999999682e+02
-3.143329999999999913e+01 1.529000000000000057e+02
2.256670000000000087e+01 5.952890000000000015e+01
6.921670000000000300e+01 -5.110000000000000142e+01
-3.301749999999999829e+01 2.790469999999998407e+01
6.483530000000000371e+01 -1.476533000000000015e+02
-1.179999999999999938e+00 1.360800000000000125e+02
4.079429999999999268e+01 -1.241564000000000050e+02
-2.506670000000000087e+01 -1.300833000000000084e+02
2.016700000000000159e+01 9.278499999999999659e+01
-3.782939999999999259e+01 1.407828000000000372e+02
-1.905599999999999739e+01 -1.699209999999999923e+02
-2.810000000000000275e-01 2.087600000000001188e+01
