   7.4640921e-01  -3.7417791e-01  -4.3959288e-01  -5.1522279e-01  -6.4178700e-01  -7.0338600e-01   8.0813993e-01   5.8710699e-01  -9.3586825e-01  -9.0415781e-01   7.5773541e-01   8.1881086e-01   4.5446540e-01  -6.2202154e-01  -1.6419196e-01  -3.6328240e-01   3.0422372e-01  -3.3901882e-01   4.4965931e-01  -4.8371418e-02  -4.3959288e-01   9.5800448e-01  -8.7253364e-01  -4.3959288e-01   6.7142272e-01   2.3327495e-01   8.5919150e-01   9.8622802e-01   9.9035738e-01   7.5181405e-03   9.1355969e-01  -4.3800567e-02   6.6845588e-01   3.6729632e-01  -3.5094159e-01   7.5767509e-01   6.6354139e-01  -1.1686299e-01  -8.8192018e-01   8.0328525e-01   2.4215473e-01   6.4148552e-01  -5.5519431e-01   5.0832001e-01  -3.5356655e-01  -8.5373110e-01   6.2850668e-02  -9.3586825e-01  -3.0343212e-01   6.8997199e-01   2.4498358e-01   4.1854201e-01   4.2338404e-01   2.9358259e-01   6.2175661e-01   6.9903362e-01  -7.2493530e-03   6.2006540e-01  -5.6982586e-01   7.1252404e-01  -5.8519138e-01  -1.1083735e-01  -4.1324476e-01   3.9618659e-01   9.5800448e-01   1.2853255e-01  -3.7577834e-01  -1.6713768e-01  -2.9126899e-01  -2.8101283e-01   9.3644280e-01   7.2686822e-01   3.5330630e-01   6.5651957e-01   4.4965931e-01   1.3718641e-01   8.6970381e-01   9.5800448e-01   7.3438036e-01   8.3457530e-02  -2.3014629e-02   7.1252404e-01   9.4052921e-01   5.5547310e-03  -6.6994188e-01   4.4079299e-01   3.0876310e-01  -6.4240090e-01  -8.1118966e-02  -9.1333045e-01   8.2658292e-01  -4.4129759e-01   9.4965594e-01   7.7918050e-01   3.6606266e-01  -7.3786661e-01   4.4646114e-01  -4.9752842e-01  -2.5023357e-01  -2.7153422e-01  -8.5373110e-01  -8.2109617e-01  -8.2109617e-01   4.9740629e-01   5.3196942e-01   1.6407613e-01  -6.0798141e-01   8.1514696e-01   9.5800448e-01   2.0631313e-01   6.0094483e-01   9.9502111e-01  -1.4764086e-01   9.9770501e-01   3.6759708e-02  -6.6994188e-01  -2.6366206e-01  -2.0075692e-01   4.8905074e-01   4.9633419e-01  -3.7554440e-01   6.8945946e-01  -7.8687765e-01  -3.0343212e-01  -4.2748205e-01  -1.6419196e-01   8.6488627e-01  -6.1032266e-01   8.6046325e-01   2.9304194e-02   1.8778087e-01  -9.3846935e-01  -3.2269591e-01  -8.5373110e-01  -1.5095675e-01  -5.8350793e-01  -8.5373110e-01   9.0945700e-01   6.9455846e-01  -1.2845285e-01  -4.9798060e-01  -2.0890119e-01   6.6845588e-01  -1.8660888e-01   8.2058734e-01   5.6655804e-01   7.8840954e-01   5.0114632e-01   4.0186533e-01   5.8710699e-01   4.4129759e-01   4.7571945e-01   3.3174946e-01   1.8672120e-01   6.5605666e-01   6.6845588e-01   3.2114694e-01  -6.5714292e-01  -2.0890119e-01  -4.4220599e-01  -7.1822656e-01  -4.6511286e-01   2.0188110e-01  -1.6463462e-01   9.9928008e-02  -1.5095675e-01   5.9086218e-01   9.8189186e-01  -9.4392550e-01  -4.0728851e-01  -5.9341975e-01   3.1581646e-01   4.0644818e-01   7.4994045e-01   3.4408751e-01   6.5591992e-02   2.2879506e-01  -8.7253364e-01   3.9774726e-01   2.3020557e-01  -1.5829517e-01  -3.1473380e-01   9.3498783e-01  -1.7671702e-01   4.0982883e-01  -9.0212963e-01   2.5649344e-01  -5.5519431e-01  -4.8758043e-01   5.6559508e-01  -9.3256589e-01  -6.4178700e-01   7.4623033e-01   7.6875924e-01   2.3398898e-01   7.1252404e-01   7.7394301e-01  -8.2109617e-01  -2.4084408e-01   3.4812270e-01  -2.0157662e-01   4.8865921e-01   3.9167712e-01  -2.8101283e-01  -4.2748205e-01   8.5414134e-01  -6.1032266e-01   1.8778087e-01   2.0188110e-01  -9.8136028e-01  -1.9589604e-01   8.3387460e-01  -2.4461835e-01  -7.9176352e-01   9.8332019e-01   1.0317256e-01  -9.2528078e-01  -7.7981054e-01   3.0876310e-01  -1.8948354e-01   8.5361235e-01  -3.0343212e-01   8.6041789e-01   8.6509215e-01   9.3760459e-01   7.4042214e-01   4.0982883e-01  -4.3851228e-01   7.1252404e-01  -8.2109617e-01   8.7780602e-01   4.1016857e-01  -4.3959288e-01  -1.9589604e-01   4.8006677e-01  -5.6982586e-01  -1.2130249e-01   7.3788342e-01  -4.4350883e-01   2.8691190e-01   4.0414512e-01  -5.5810538e-02   1.8536326e-01  -2.4931951e-01   2.3020557e-01   9.5877185e-01   3.7423437e-01   9.7534439e-01   6.0696987e-01   2.9586510e-01   2.4775314e-01  -3.0458245e-01  -4.0619838e-01   9.3846935e-01   3.7620564e-01   5.3196942e-01  -2.1176148e-01   6.1398383e-01   4.5007395e-01   3.6087033e-01   7.1952990e-01  -2.4094523e-01  -9.4432635e-01  -2.0075692e-01   6.5200281e-01   5.0832001e-01   2.3020557e-01   8.4170231e-01   5.3167554e-01   5.5160885e-01   8.3457530e-02  -1.2871836e-01   8.6966228e-01   3.3867686e-01  -8.2109617e-01   2.8691190e-01   9.9412853e-01   3.9397379e-01   9.5800448e-01   1.8672120e-01  -3.6328240e-01  -7.1318825e-02   6.5978730e-01   7.7918050e-01  -2.2804283e-01   7.3209555e-01  -3.1543097e-01   4.0730243e-01   9.7923689e-02   4.1626097e-01   8.5634902e-01  -1.7671702e-01   4.7304231e-01   9.4989593e-01  -8.8364982e-01   3.1534591e-01   9.9502111e-01   7.0998326e-01   7.1252404e-01  -9.4432635e-01   6.3395361e-01   2.8622257e-02   4.5216695e-01  -9.4392550e-01  -5.7422273e-01   7.1021042e-01   3.4228175e-02  -6.6994188e-01  -7.7668838e-01   4.4159939e-01   1.8057170e-01   7.4994045e-01  -3.5356655e-01  -7.2139302e-01  -4.2600503e-01  -5.6982586e-01  -1.8925611e-02  -5.9341975e-01  -9.3366601e-01   9.3397527e-01
   4.6734702e-01   6.4886682e-01   8.3160236e-01   6.5581231e-01   7.3786760e-01   7.0993601e-01   4.8901058e-01  -7.9982595e-01   3.4489571e-01   4.1572884e-01   4.2838533e-01   3.3948352e-01  -8.8672691e-01   6.7636251e-01   4.0621198e-01   7.9333134e-01  -8.6525616e-01   9.3962605e-01  -8.6593050e-01  -8.6055336e-01   8.3160236e-01  -8.4906484e-02   3.1500852e-01   8.3160236e-01  -7.4062686e-01  -8.8744508e-01  -4.2532128e-01  -9.1727535e-02   1.3690837e-01   9.9022111e-01   4.0221900e-01  -6.3185448e-01  -6.3665339e-01   6.2789396e-01  -8.1106872e-01   6.4640025e-01   1.0055978e-02  -9.2891484e-01   4.6095346e-01  -5.9091380e-01  -9.3174758e-01   6.3890142e-01   1.7867234e-01   7.9831351e-01  -2.0426194e-01   1.9314745e-01   7.3464662e-01   3.4489571e-01   3.3126320e-01   6.2406124e-01   8.9585185e-01  -1.7429227e-01  -5.5213878e-01   8.7361497e-01  -7.8318909e-01  -6.8926597e-01  -9.9795523e-01   7.5282298e-01  -7.0080130e-01  -3.4338728e-01   7.9380827e-01   9.6342390e-01   7.2142024e-01   2.1818029e-01  -8.4906484e-02  -8.3354984e-01  -3.6673417e-01  -5.6268741e-01  -6.1452437e-01   9.4069028e-01   1.8701361e-01  -6.7790970e-01  -6.2489808e-01   1.7716332e-02  -8.6593050e-01  -8.6132865e-01   2.1059748e-01  -8.4906484e-02  -6.7754727e-01  -9.7961744e-01   3.0314725e-01  -3.4338728e-01   2.0978659e-01  -8.4886348e-01   1.5754704e-01   7.6398245e-01  -3.5713043e-01   4.5199953e-01  -6.7295209e-01   3.9156250e-01   2.5780522e-01   8.9547346e-01   2.5364049e-01  -1.5298007e-01  -3.6439861e-01   4.0331651e-01   4.7557156e-02   8.1216131e-01   9.4304763e-01  -7.6282140e-01   1.9314745e-01  -4.7489440e-01  -4.7489440e-01  -8.3726285e-01   8.0922530e-01  -9.8277968e-01   4.6413319e-01   4.8336788e-01  -8.4906484e-02   7.9724302e-01  -7.9187977e-01   9.4089199e-02  -6.4523557e-01   4.9087801e-02   5.6352851e-01   1.5754704e-01  -8.5653607e-01   9.7550266e-01   3.8935787e-01   7.7979174e-01   9.2162566e-01   5.0255087e-01   3.9544318e-01   3.3126320e-01  -6.8293159e-01   4.0621198e-01   4.2788814e-01   4.4124372e-01  -4.3516326e-01  -8.5623103e-01   9.7538951e-01   2.5880545e-01   8.9600618e-01   1.9314745e-01  -9.6137878e-01   3.8293652e-01   1.9314745e-01  -2.2696478e-01   6.2408615e-01  -7.4281221e-01   5.2279292e-01  -4.1612180e-01  -6.3665339e-01   9.7914360e-01  -2.4796438e-01   8.2283717e-01   5.8314977e-01  -6.7396724e-01  -8.4665517e-01  -7.9982595e-01  -8.9547346e-01   3.9437873e-01  -7.6638529e-01  -3.0677946e-01  -7.3654265e-01  -6.3665339e-01  -9.0874642e-01  -4.0765371e-02  -4.1612180e-01   8.8491209e-01   1.0532553e-01   7.3072752e-01   7.7032597e-02   9.4525654e-01   9.3960358e-01  -9.6137878e-01  -8.0083832e-01  -1.8096592e-01   2.7605894e-01   6.4897087e-01   4.9363077e-01  -8.7248410e-01   5.4336638e-01   3.7411584e-01  -9.3839769e-01   8.7477315e-01  -9.6019823e-01   3.1500852e-01   3.6067315e-01  -6.1866105e-01  -8.0103385e-01  -6.4863984e-01   7.8844126e-02   9.8410025e-01  -6.7686592e-01   2.3883591e-01  -7.0644534e-01   1.7867234e-01   5.4671675e-01  -8.0582288e-01  -6.8531645e-02   7.3786760e-01   4.6366034e-01   4.1253890e-01  -9.4647155e-01  -3.4338728e-01   1.4089563e-01  -4.7489440e-01   5.5459036e-01   4.3176504e-01   9.7810989e-01  -8.2503966e-01  -7.8852723e-02   9.4069028e-01  -6.8293159e-01   8.7959726e-02   4.4124372e-01   9.7538951e-01   7.7032597e-02  -3.4588905e-02  -9.2612634e-01   5.1945671e-01  -7.7029360e-01   6.0832668e-01   8.3689740e-02   3.9051954e-01   3.3085268e-01   4.2320606e-01  -3.5713043e-01  -5.1624148e-01   4.5124883e-01   3.3126320e-01   4.3063174e-02  -4.0934365e-01   8.7969772e-02   5.3626449e-01  -6.7686592e-01   2.3797830e-01  -3.4338728e-01  -4.7489440e-01   2.4608406e-01   6.2921801e-01   8.3160236e-01  -9.2612634e-01  -8.4405493e-01  -7.0080130e-01   5.8866367e-01  -6.7463600e-01   2.0506018e-02  -9.1887589e-01   6.6942848e-01  -7.5905098e-01   8.2795538e-01   5.5828598e-01  -6.1866105e-01  -2.4328992e-01  -7.6342708e-01   1.8426938e-01  -6.4671992e-01   8.9735113e-01  -7.1387457e-01   6.8335050e-01   6.0531215e-01  -2.5880545e-01  -9.2184058e-01   8.0922530e-01  -8.9901469e-01  -7.7900272e-01  -3.4671466e-01  -6.9245907e-01  -6.8381837e-01   9.6881075e-01   3.1250402e-01   9.7550266e-01   6.0055732e-01   7.9831351e-01  -6.1866105e-01   5.3822115e-01   2.0765927e-01  -1.1465167e-01  -9.7961744e-01  -9.6445330e-01   3.8777538e-01  -8.8515804e-01  -4.7489440e-01  -9.1887589e-01  -5.3539724e-02   7.7153240e-01  -8.4906484e-02  -3.0677946e-01   7.9333134e-01  -7.3769565e-01   6.2535332e-01  -1.5298007e-01  -8.3990086e-01  -3.0319543e-02   9.3808145e-01   7.2288273e-01   7.9818083e-01   3.3446263e-01   2.9579759e-01   9.8410025e-01   5.8925555e-01   2.7272218e-01   4.5826037e-01   4.0594560e-01   9.4089199e-02   2.8692601e-01  -3.4338728e-01   3.1250402e-01  -7.7270062e-01  -7.1938013e-01  -8.3838812e-01   2.7605894e-01   3.7706938e-01  -1.2518704e-01   4.2334765e-01   1.5754704e-01   3.6581566e-01   8.2051254e-01  -2.8465191e-01   3.7411584e-01  -2.0426194e-01   6.9237361e-01  -6.3539529e-01  -7.0080130e-01   9.4464531e-01   4.9363077e-01  -1.4346272e-01   3.5598812e-01
  -4.7377215e-01   6.6254264e-01  -3.3940479e-01   5.5177504e-01  -2.0895180e-01  -3.5199412e-02   3.2829638e-01   1.2483520e-01   7.2094215e-02  -9.8326920e-02  -4.9226320e-01  -4.6292518e-01  -8.4714795e-02  -3.9449076e-01   8.9890646e-01  -4.8851949e-01  -3.9847171e-01  -4.6573874e-02  -2.1902252e-01   5.0705830e-01  -3.3940479e-01  -2.7389470e-01  -3.7343631e-01  -3.3940479e-01   2.5756273e-02   3.9752236e-01   2.8441478e-01   1.3762393e-01  -2.1174610e-02   1.3930408e-01  -6.0237528e-02   7.7384846e-01  -3.8449864e-01   6.8617970e-01   4.6798240e-01  -8.9973174e-02   7.4807199e-01   3.5136911e-01  -9.8684855e-02  -7.4523023e-02   2.7056892e-01  -4.2461902e-01   8.1230257e-01  -3.2296486e-01   9.1283501e-01  -4.8356723e-01   6.7553249e-01   7.2094215e-02   8.9341684e-01   3.6672363e-01   3.7071892e-01   8.9131633e-01   7.1825394e-01   3.8808008e-01  -5.7941067e-03  -1.9043218e-01  -6.3504300e-02   2.2085393e-01  -4.2915735e-01   6.1187799e-01   1.6558829e-01   2.4398662e-01  -5.5568121e-01   8.9187081e-01  -2.7389470e-01   5.3728396e-01   8.5105622e-01   8.0959735e-01   7.3315904e-01  -1.9008835e-01  -2.9681779e-01  -1.1000470e-01   6.9618751e-01   7.5410091e-01  -2.1902252e-01   4.8917567e-01   4.4638994e-01  -2.7389470e-01  -4.0189413e-02   1.8271429e-01   9.5266577e-01   6.1187799e-01  -2.6719730e-01   5.2858296e-01  -7.2550452e-01   4.7120309e-01   8.8154591e-01   6.1888408e-01   7.3522459e-01  -1.1183158e-01   5.0029706e-01  -5.8169796e-02  -1.8390238e-01  -6.0784442e-01   8.5627787e-01  -5.4119189e-01   8.9353834e-01   3.0472853e-01   2.1919018e-01   5.8683275e-01  -4.8356723e-01  -3.1666448e-01  -3.1666448e-01   2.2710769e-01   2.4932499e-01  -8.4988998e-02   6.4415758e-01   3.1920358e-01  -2.7389470e-01   5.6730809e-01   1.0858978e-01  -3.2866608e-02   7.4958204e-01   4.6638005e-02   8.2527834e-01  -7.2550452e-01   4.4365333e-01  -8.9951234e-02   7.8053176e-01   3.8154583e-01  -9.7839359e-02   5.2162082e-01  -4.7375971e-01   8.9341684e-01   5.9233736e-01   8.9890646e-01  -2.6245661e-01  -6.5788315e-01   2.6502062e-01   5.1576126e-01   1.1555799e-01  -2.2868104e-01   3.0502503e-01  -4.8356723e-01   2.3013672e-01   7.1615509e-01  -4.8356723e-01   3.4838908e-01  -3.5791762e-01   6.5706156e-01   6.9188357e-01   8.8498754e-01  -3.8449864e-01  -8.0342608e-02   5.1492726e-01  -4.4169925e-02   1.9582325e-01  -5.4278958e-01  -3.4882557e-01   1.2483520e-01   5.8169796e-02   7.8622924e-01  -5.5008716e-01   9.3328536e-01  -1.6460432e-01  -3.8449864e-01   2.6654190e-01  -7.5266285e-01   8.8498754e-01   1.4623426e-01  -6.8779150e-01  -4.9970723e-01   9.7637595e-01   2.8175436e-01   3.2735225e-01   2.3013672e-01  -9.7672226e-02   5.6033058e-02  -1.8109698e-01   6.4261409e-01  -6.3575282e-01  -3.7286922e-01   7.3454262e-01  -5.4555170e-01  -3.1836531e-02   4.8007252e-01  -1.6022541e-01  -3.7343631e-01   8.4363025e-01   7.5117501e-01   5.7731049e-01   6.9297113e-01   3.4580538e-01  -1.7826758e-02  -6.1146779e-01  -3.5933207e-01   6.5965604e-01   8.1230257e-01   6.8071001e-01  -1.7536159e-01  -3.5443515e-01  -2.0895180e-01   4.7766032e-01  -4.8869304e-01   2.2235281e-01   6.1187799e-01   6.1738209e-01  -3.1666448e-01   7.9650716e-01   8.3209947e-01   5.1651804e-02  -2.8376351e-01   9.1671767e-01  -1.9008835e-01   5.9233736e-01   5.1254819e-01  -6.5788315e-01   1.1555799e-01   9.7637595e-01  -1.8903862e-01   3.2235809e-01  -1.8659549e-01   5.8890545e-01  -5.5219485e-02   1.6148505e-01   9.1479501e-01  -1.8545075e-01  -4.6129400e-01   8.8154591e-01   8.3521897e-01   2.6023152e-01   8.9341684e-01   5.0776630e-01   2.8991955e-01   3.3639108e-01  -4.0521038e-01  -6.1146779e-01   8.6664486e-01   6.1187799e-01  -3.1666448e-01  -4.1097351e-01   6.6018667e-01  -3.3940479e-01   3.2235809e-01  -2.3897109e-01  -4.2915735e-01   7.9922512e-01  -1.9857545e-02   8.9603539e-01  -2.7082958e-01   6.2332354e-01   6.4863456e-01   5.2927342e-01   7.9130054e-01   7.5117501e-01   1.4685556e-01   5.2642924e-01   1.2144185e-01  -4.6188842e-01   3.2745196e-01   6.5498205e-01   6.6352214e-01   6.8454370e-01   2.2868104e-01  -9.3162528e-02   2.4932499e-01   3.8331405e-01  -1.2719520e-01  -8.2293522e-01  -6.2471838e-01  -1.2111632e-01  -5.7888903e-02   1.0290282e-01  -8.9951234e-02   4.6284258e-01  -3.2296486e-01   7.5117501e-01  -4.3072305e-02   8.2109606e-01   8.2618562e-01   1.8271429e-01   2.3078436e-01  -3.0547959e-01   3.1905052e-01  -3.1666448e-01  -2.7082958e-01   9.4031720e-02   4.9952219e-01  -2.7389470e-01   9.3328536e-01  -4.8851949e-01   6.7135591e-01   4.1667006e-01  -6.0784442e-01   4.9250687e-01   6.8052688e-01  -1.4320087e-01   5.5816242e-01   5.9440585e-01   8.4549486e-01  -4.2328494e-01  -1.7826758e-02   6.5498768e-01   1.5270994e-01   9.5710103e-02   8.5776753e-01  -3.2866608e-02   6.4311526e-01   6.1187799e-01   1.0290282e-01  -3.2195759e-02   6.9402665e-01  -3.0438529e-01  -1.8109698e-01   7.2669590e-01   6.9276934e-01   9.0532050e-01  -7.2550452e-01  -5.1277096e-01   3.6297266e-01   9.4147074e-01  -5.4555170e-01   9.1283501e-01  -1.4522277e-02   6.4404390e-01  -4.2915735e-01   3.2754704e-01  -6.3575282e-01  -3.2815579e-01  -3.1026638e-02
